digraph Tree {
node [shape=box] ;
0 [label="X[10] <= -0.0517\nentropy = 1.0\nsamples = 1000\nvalue = [499, 501]"] ;
1 [label="X[18] <= -2.7327\nentropy = 0.5884\nsamples = 558\nvalue = [79, 479]"] ;
0 -> 1 [labeldistance=2.5, labelangle=45, headlabel="True"] ;
2 [label="entropy = 0.0\nsamples = 14\nvalue = [14, 0]"] ;
1 -> 2 ;
3 [label="X[10] <= -0.6591\nentropy = 0.5279\nsamples = 544\nvalue = [65, 479]"] ;
1 -> 3 ;
4 [label="X[4] <= 1.6688\nentropy = 0.3034\nsamples = 407\nvalue = [22, 385]"] ;
3 -> 4 ;
5 [label="X[19] <= 0.3189\nentropy = 0.1819\nsamples = 363\nvalue = [10, 353]"] ;
4 -> 5 ;
6 [label="entropy = 0.045\nsamples = 202\nvalue = [1, 201]"] ;
5 -> 6 ;
7 [label="entropy = 0.311\nsamples = 161\nvalue = [9, 152]"] ;
5 -> 7 ;
8 [label="X[10] <= -0.9347\nentropy = 0.8454\nsamples = 44\nvalue = [12, 32]"] ;
4 -> 8 ;
9 [label="entropy = 0.9641\nsamples = 18\nvalue = [11, 7]"] ;
8 -> 9 ;
10 [label="entropy = 0.2352\nsamples = 26\nvalue = [1, 25]"] ;
8 -> 10 ;
11 [label="X[0] <= 0.0102\nentropy = 0.8976\nsamples = 137\nvalue = [43, 94]"] ;
3 -> 11 ;
12 [label="X[4] <= 1.7804\nentropy = 0.888\nsamples = 36\nvalue = [25, 11]"] ;
11 -> 12 ;
13 [label="entropy = 0.4022\nsamples = 25\nvalue = [23, 2]"] ;
12 -> 13 ;
14 [label="entropy = 0.684\nsamples = 11\nvalue = [2, 9]"] ;
12 -> 14 ;
15 [label="X[18] <= -0.1744\nentropy = 0.6762\nsamples = 101\nvalue = [18, 83]"] ;
11 -> 15 ;
16 [label="entropy = 0.2829\nsamples = 61\nvalue = [3, 58]"] ;
15 -> 16 ;
17 [label="entropy = 0.9544\nsamples = 40\nvalue = [15, 25]"] ;
15 -> 17 ;
18 [label="X[13] <= 2.0606\nentropy = 0.2854\nsamples = 442\nvalue = [420, 22]"] ;
0 -> 18 [labeldistance=2.5, labelangle=-45, headlabel="False"] ;
19 [label="X[8] <= -2.7054\nentropy = 0.0654\nsamples = 388\nvalue = [385, 3]"] ;
18 -> 19 ;
20 [label="entropy = 0.0\nsamples = 1\nvalue = [0, 1]"] ;
19 -> 20 ;
21 [label="X[12] <= 0.6672\nentropy = 0.0467\nsamples = 387\nvalue = [385, 2]"] ;
19 -> 21 ;
22 [label="entropy = 0.0\nsamples = 297\nvalue = [297, 0]"] ;
21 -> 22 ;
23 [label="X[12] <= 0.6836\nentropy = 0.1537\nsamples = 90\nvalue = [88, 2]"] ;
21 -> 23 ;
24 [label="entropy = 0.0\nsamples = 1\nvalue = [0, 1]"] ;
23 -> 24 ;
25 [label="entropy = 0.0889\nsamples = 89\nvalue = [88, 1]"] ;
23 -> 25 ;
26 [label="X[4] <= -1.4558\nentropy = 0.9357\nsamples = 54\nvalue = [35, 19]"] ;
18 -> 26 ;
27 [label="entropy = 0.0\nsamples = 35\nvalue = [35, 0]"] ;
26 -> 27 ;
28 [label="entropy = 0.0\nsamples = 19\nvalue = [0, 19]"] ;
26 -> 28 ;
}